digraph Tree {
node [shape=box, style="filled, rounded", color="black", fontname=helvetica] ;
edge [fontname=helvetica] ;
0 [label="Sex_Code <= 0.5\ngini = 0.473\nsamples = 891\nvalue = [549, 342]\nclass = y[0]", fillcolor="#e5813960"] ;
1 [label="Pclass <= 2.5\ngini = 0.383\nsamples = 314\nvalue = [81, 233]\nclass = y[1]", fillcolor="#399de5a6"] ;
0 -> 1 [labeldistance=2.5, labelangle=45, headlabel="True"] ;
2 [label="FareBin_Code <= 2.5\ngini = 0.1\nsamples = 170\nvalue = [9, 161]\nclass = y[1]", fillcolor="#399de5f1"] ;
1 -> 2 ;
3 [label="AgeBin_Code <= 2.5\ngini = 0.169\nsamples = 75\nvalue = [7, 68]\nclass = y[1]", fillcolor="#399de5e5"] ;
2 -> 3 ;
4 [label="Embarked_Code <= 1.5\ngini = 0.14\nsamples = 66\nvalue = [5, 61]\nclass = y[1]", fillcolor="#399de5ea"] ;
3 -> 4 ;
5 [label="gini = 0.0\nsamples = 9\nvalue = [0, 9]\nclass = y[1]", fillcolor="#399de5ff"] ;
4 -> 5 ;
6 [label="AgeBin_Code <= 0.5\ngini = 0.16\nsamples = 57\nvalue = [5, 52]\nclass = y[1]", fillcolor="#399de5e6"] ;
4 -> 6 ;
7 [label="gini = 0.0\nsamples = 6\nvalue = [0, 6]\nclass = y[1]", fillcolor="#399de5ff"] ;
6 -> 7 ;
8 [label="FamilySize <= 3.5\ngini = 0.177\nsamples = 51\nvalue = [5, 46]\nclass = y[1]", fillcolor="#399de5e3"] ;
6 -> 8 ;
9 [label="FamilySize <= 1.5\ngini = 0.19\nsamples = 47\nvalue = [5, 42]\nclass = y[1]", fillcolor="#399de5e1"] ;
8 -> 9 ;
10 [label="Title_Code <= 3.0\ngini = 0.147\nsamples = 25\nvalue = [2, 23]\nclass = y[1]", fillcolor="#399de5e9"] ;
9 -> 10 ;
11 [label="FareBin_Code <= 1.5\ngini = 0.219\nsamples = 16\nvalue = [2, 14]\nclass = y[1]", fillcolor="#399de5db"] ;
10 -> 11 ;
12 [label="AgeBin_Code <= 1.5\ngini = 0.26\nsamples = 13\nvalue = [2, 11]\nclass = y[1]", fillcolor="#399de5d1"] ;
11 -> 12 ;
13 [label="Title_Code <= 1.5\ngini = 0.198\nsamples = 9\nvalue = [1, 8]\nclass = y[1]", fillcolor="#399de5df"] ;
12 -> 13 ;
14 [label="gini = 0.0\nsamples = 1\nvalue = [0, 1]\nclass = y[1]", fillcolor="#399de5ff"] ;
13 -> 14 ;
15 [label="gini = 0.219\nsamples = 8\nvalue = [1, 7]\nclass = y[1]", fillcolor="#399de5db"] ;
13 -> 15 ;
16 [label="gini = 0.375\nsamples = 4\nvalue = [1, 3]\nclass = y[1]", fillcolor="#399de5aa"] ;
12 -> 16 ;
17 [label="gini = 0.0\nsamples = 3\nvalue = [0, 3]\nclass = y[1]", fillcolor="#399de5ff"] ;
11 -> 17 ;
18 [label="gini = 0.0\nsamples = 9\nvalue = [0, 9]\nclass = y[1]", fillcolor="#399de5ff"] ;
10 -> 18 ;
19 [label="Title_Code <= 3.0\ngini = 0.236\nsamples = 22\nvalue = [3, 19]\nclass = y[1]", fillcolor="#399de5d7"] ;
9 -> 19 ;
20 [label="gini = 0.0\nsamples = 4\nvalue = [0, 4]\nclass = y[1]", fillcolor="#399de5ff"] ;
19 -> 20 ;
21 [label="AgeBin_Code <= 1.5\ngini = 0.278\nsamples = 18\nvalue = [3, 15]\nclass = y[1]", fillcolor="#399de5cc"] ;
19 -> 21 ;
22 [label="FamilySize <= 2.5\ngini = 0.298\nsamples = 11\nvalue = [2, 9]\nclass = y[1]", fillcolor="#399de5c6"] ;
21 -> 22 ;
23 [label="gini = 0.245\nsamples = 7\nvalue = [1, 6]\nclass = y[1]", fillcolor="#399de5d4"] ;
22 -> 23 ;
24 [label="gini = 0.375\nsamples = 4\nvalue = [1, 3]\nclass = y[1]", fillcolor="#399de5aa"] ;
22 -> 24 ;
25 [label="FamilySize <= 2.5\ngini = 0.245\nsamples = 7\nvalue = [1, 6]\nclass = y[1]", fillcolor="#399de5d4"] ;
21 -> 25 ;
26 [label="gini = 0.32\nsamples = 5\nvalue = [1, 4]\nclass = y[1]", fillcolor="#399de5bf"] ;
25 -> 26 ;
27 [label="gini = 0.0\nsamples = 2\nvalue = [0, 2]\nclass = y[1]", fillcolor="#399de5ff"] ;
25 -> 27 ;
28 [label="gini = 0.0\nsamples = 4\nvalue = [0, 4]\nclass = y[1]", fillcolor="#399de5ff"] ;
8 -> 28 ;
29 [label="Embarked_Code <= 1.0\ngini = 0.346\nsamples = 9\nvalue = [2, 7]\nclass = y[1]", fillcolor="#399de5b6"] ;
3 -> 29 ;
30 [label="gini = 0.0\nsamples = 1\nvalue = [1, 0]\nclass = y[0]", fillcolor="#e58139ff"] ;
29 -> 30 ;
31 [label="FareBin_Code <= 1.5\ngini = 0.219\nsamples = 8\nvalue = [1, 7]\nclass = y[1]", fillcolor="#399de5db"] ;
29 -> 31 ;
32 [label="Title_Code <= 3.0\ngini = 0.444\nsamples = 3\nvalue = [1, 2]\nclass = y[1]", fillcolor="#399de57f"] ;
31 -> 32 ;
33 [label="gini = 0.0\nsamples = 2\nvalue = [0, 2]\nclass = y[1]", fillcolor="#399de5ff"] ;
32 -> 33 ;
34 [label="gini = 0.0\nsamples = 1\nvalue = [1, 0]\nclass = y[0]", fillcolor="#e58139ff"] ;
32 -> 34 ;
35 [label="gini = 0.0\nsamples = 5\nvalue = [0, 5]\nclass = y[1]", fillcolor="#399de5ff"] ;
31 -> 35 ;
36 [label="FamilySize <= 3.5\ngini = 0.041\nsamples = 95\nvalue = [2, 93]\nclass = y[1]", fillcolor="#399de5fa"] ;
2 -> 36 ;
37 [label="gini = 0.0\nsamples = 82\nvalue = [0, 82]\nclass = y[1]", fillcolor="#399de5ff"] ;
36 -> 37 ;
38 [label="Pclass <= 1.5\ngini = 0.26\nsamples = 13\nvalue = [2, 11]\nclass = y[1]", fillcolor="#399de5d1"] ;
36 -> 38 ;
39 [label="FamilySize <= 4.5\ngini = 0.375\nsamples = 8\nvalue = [2, 6]\nclass = y[1]", fillcolor="#399de5aa"] ;
38 -> 39 ;
40 [label="AgeBin_Code <= 1.5\ngini = 0.5\nsamples = 4\nvalue = [2, 2]\nclass = y[0]", fillcolor="#e5813900"] ;
39 -> 40 ;
41 [label="AgeBin_Code <= 0.5\ngini = 0.444\nsamples = 3\nvalue = [2, 1]\nclass = y[0]", fillcolor="#e581397f"] ;
40 -> 41 ;
42 [label="gini = 0.5\nsamples = 2\nvalue = [1, 1]\nclass = y[0]", fillcolor="#e5813900"] ;
41 -> 42 ;
43 [label="gini = 0.0\nsamples = 1\nvalue = [1, 0]\nclass = y[0]", fillcolor="#e58139ff"] ;
41 -> 43 ;
44 [label="gini = 0.0\nsamples = 1\nvalue = [0, 1]\nclass = y[1]", fillcolor="#399de5ff"] ;
40 -> 44 ;
45 [label="gini = 0.0\nsamples = 4\nvalue = [0, 4]\nclass = y[1]", fillcolor="#399de5ff"] ;
39 -> 45 ;
46 [label="gini = 0.0\nsamples = 5\nvalue = [0, 5]\nclass = y[1]", fillcolor="#399de5ff"] ;
38 -> 46 ;
47 [label="FamilySize <= 4.5\ngini = 0.5\nsamples = 144\nvalue = [72, 72]\nclass = y[0]", fillcolor="#e5813900"] ;
1 -> 47 ;
48 [label="Embarked_Code <= 1.5\ngini = 0.484\nsamples = 117\nvalue = [48, 69]\nclass = y[1]", fillcolor="#399de54e"] ;
47 -> 48 ;
49 [label="AgeBin_Code <= 1.5\ngini = 0.413\nsamples = 55\nvalue = [16, 39]\nclass = y[1]", fillcolor="#399de596"] ;
48 -> 49 ;
50 [label="AgeBin_Code <= 0.5\ngini = 0.401\nsamples = 54\nvalue = [15, 39]\nclass = y[1]", fillcolor="#399de59d"] ;
49 -> 50 ;
51 [label="FamilySize <= 1.5\ngini = 0.245\nsamples = 14\nvalue = [2, 12]\nclass = y[1]", fillcolor="#399de5d4"] ;
50 -> 51 ;
52 [label="gini = 0.0\nsamples = 5\nvalue = [0, 5]\nclass = y[1]", fillcolor="#399de5ff"] ;
51 -> 52 ;
53 [label="FamilySize <= 3.5\ngini = 0.346\nsamples = 9\nvalue = [2, 7]\nclass = y[1]", fillcolor="#399de5b6"] ;
51 -> 53 ;
54 [label="Title_Code <= 3.0\ngini = 0.444\nsamples = 6\nvalue = [2, 4]\nclass = y[1]", fillcolor="#399de57f"] ;
53 -> 54 ;
55 [label="FareBin_Code <= 1.5\ngini = 0.48\nsamples = 5\nvalue = [2, 3]\nclass = y[1]", fillcolor="#399de555"] ;
54 -> 55 ;
56 [label="gini = 0.444\nsamples = 3\nvalue = [1, 2]\nclass = y[1]", fillcolor="#399de57f"] ;
55 -> 56 ;
57 [label="gini = 0.5\nsamples = 2\nvalue = [1, 1]\nclass = y[0]", fillcolor="#e5813900"] ;
55 -> 57 ;
58 [label="gini = 0.0\nsamples = 1\nvalue = [0, 1]\nclass = y[1]", fillcolor="#399de5ff"] ;
54 -> 58 ;
59 [label="gini = 0.0\nsamples = 3\nvalue = [0, 3]\nclass = y[1]", fillcolor="#399de5ff"] ;
53 -> 59 ;
60 [label="FareBin_Code <= 0.5\ngini = 0.439\nsamples = 40\nvalue = [13, 27]\nclass = y[1]", fillcolor="#399de584"] ;
50 -> 60 ;
61 [label="FamilySize <= 2.0\ngini = 0.375\nsamples = 24\nvalue = [6, 18]\nclass = y[1]", fillcolor="#399de5aa"] ;
60 -> 61 ;
62 [label="Embarked_Code <= 0.5\ngini = 0.34\nsamples = 23\nvalue = [5, 18]\nclass = y[1]", fillcolor="#399de5b8"] ;
61 -> 62 ;
63 [label="gini = 0.0\nsamples = 2\nvalue = [0, 2]\nclass = y[1]", fillcolor="#399de5ff"] ;
62 -> 63 ;
64 [label="gini = 0.363\nsamples = 21\nvalue = [5, 16]\nclass = y[1]", fillcolor="#399de5af"] ;
62 -> 64 ;
65 [label="gini = 0.0\nsamples = 1\nvalue = [1, 0]\nclass = y[0]", fillcolor="#e58139ff"] ;
61 -> 65 ;
66 [label="FareBin_Code <= 1.5\ngini = 0.492\nsamples = 16\nvalue = [7, 9]\nclass = y[1]", fillcolor="#399de539"] ;
60 -> 66 ;
67 [label="gini = 0.0\nsamples = 3\nvalue = [3, 0]\nclass = y[0]", fillcolor="#e58139ff"] ;
66 -> 67 ;
68 [label="FamilySize <= 1.5\ngini = 0.426\nsamples = 13\nvalue = [4, 9]\nclass = y[1]", fillcolor="#399de58e"] ;
66 -> 68 ;
69 [label="gini = 0.0\nsamples = 1\nvalue = [1, 0]\nclass = y[0]", fillcolor="#e58139ff"] ;
68 -> 69 ;
70 [label="Title_Code <= 3.0\ngini = 0.375\nsamples = 12\nvalue = [3, 9]\nclass = y[1]", fillcolor="#399de5aa"] ;
68 -> 70 ;
71 [label="gini = 0.0\nsamples = 5\nvalue = [0, 5]\nclass = y[1]", fillcolor="#399de5ff"] ;
70 -> 71 ;
72 [label="FamilySize <= 3.5\ngini = 0.49\nsamples = 7\nvalue = [3, 4]\nclass = y[1]", fillcolor="#399de540"] ;
70 -> 72 ;
73 [label="FamilySize <= 2.5\ngini = 0.5\nsamples = 6\nvalue = [3, 3]\nclass = y[0]", fillcolor="#e5813900"] ;
72 -> 73 ;
74 [label="Embarked_Code <= 0.5\ngini = 0.5\nsamples = 2\nvalue = [1, 1]\nclass = y[0]", fillcolor="#e5813900"] ;
73 -> 74 ;
75 [label="gini = 0.0\nsamples = 1\nvalue = [1, 0]\nclass = y[0]", fillcolor="#e58139ff"] ;
74 -> 75 ;
76 [label="gini = 0.0\nsamples = 1\nvalue = [0, 1]\nclass = y[1]", fillcolor="#399de5ff"] ;
74 -> 76 ;
77 [label="Embarked_Code <= 0.5\ngini = 0.5\nsamples = 4\nvalue = [2, 2]\nclass = y[0]", fillcolor="#e5813900"] ;
73 -> 77 ;
78 [label="gini = 0.444\nsamples = 3\nvalue = [1, 2]\nclass = y[1]", fillcolor="#399de57f"] ;
77 -> 78 ;
79 [label="gini = 0.0\nsamples = 1\nvalue = [1, 0]\nclass = y[0]", fillcolor="#e58139ff"] ;
77 -> 79 ;
80 [label="gini = 0.0\nsamples = 1\nvalue = [0, 1]\nclass = y[1]", fillcolor="#399de5ff"] ;
72 -> 80 ;
81 [label="gini = 0.0\nsamples = 1\nvalue = [1, 0]\nclass = y[0]", fillcolor="#e58139ff"] ;
49 -> 81 ;
82 [label="AgeBin_Code <= 2.5\ngini = 0.499\nsamples = 62\nvalue = [32, 30]\nclass = y[0]", fillcolor="#e5813910"] ;
48 -> 82 ;
83 [label="AgeBin_Code <= 0.5\ngini = 0.499\nsamples = 61\nvalue = [32, 29]\nclass = y[0]", fillcolor="#e5813918"] ;
82 -> 83 ;
84 [label="FareBin_Code <= 0.5\ngini = 0.469\nsamples = 8\nvalue = [3, 5]\nclass = y[1]", fillcolor="#399de566"] ;
83 -> 84 ;
85 [label="gini = 0.0\nsamples = 1\nvalue = [1, 0]\nclass = y[0]", fillcolor="#e58139ff"] ;
84 -> 85 ;
86 [label="FamilySize <= 1.5\ngini = 0.408\nsamples = 7\nvalue = [2, 5]\nclass = y[1]", fillcolor="#399de599"] ;
84 -> 86 ;
87 [label="gini = 0.0\nsamples = 1\nvalue = [0, 1]\nclass = y[1]", fillcolor="#399de5ff"] ;
86 -> 87 ;
88 [label="FamilySize <= 2.5\ngini = 0.444\nsamples = 6\nvalue = [2, 4]\nclass = y[1]", fillcolor="#399de57f"] ;
86 -> 88 ;
89 [label="gini = 0.5\nsamples = 2\nvalue = [1, 1]\nclass = y[0]", fillcolor="#e5813900"] ;
88 -> 89 ;
90 [label="FareBin_Code <= 1.5\ngini = 0.375\nsamples = 4\nvalue = [1, 3]\nclass = y[1]", fillcolor="#399de5aa"] ;
88 -> 90 ;
91 [label="gini = 0.0\nsamples = 1\nvalue = [0, 1]\nclass = y[1]", fillcolor="#399de5ff"] ;
90 -> 91 ;
92 [label="gini = 0.444\nsamples = 3\nvalue = [1, 2]\nclass = y[1]", fillcolor="#399de57f"] ;
90 -> 92 ;
93 [label="Title_Code <= 3.0\ngini = 0.496\nsamples = 53\nvalue = [29, 24]\nclass = y[0]", fillcolor="#e581392c"] ;
83 -> 93 ;
94 [label="FareBin_Code <= 0.5\ngini = 0.475\nsamples = 31\nvalue = [19, 12]\nclass = y[0]", fillcolor="#e581395e"] ;
93 -> 94 ;
95 [label="AgeBin_Code <= 1.5\ngini = 0.49\nsamples = 14\nvalue = [6, 8]\nclass = y[1]", fillcolor="#399de540"] ;
94 -> 95 ;
96 [label="FamilySize <= 1.5\ngini = 0.473\nsamples = 13\nvalue = [5, 8]\nclass = y[1]", fillcolor="#399de560"] ;
95 -> 96 ;
97 [label="gini = 0.486\nsamples = 12\nvalue = [5, 7]\nclass = y[1]", fillcolor="#399de549"] ;
96 -> 97 ;
98 [label="gini = 0.0\nsamples = 1\nvalue = [0, 1]\nclass = y[1]", fillcolor="#399de5ff"] ;
96 -> 98 ;
99 [label="gini = 0.0\nsamples = 1\nvalue = [1, 0]\nclass = y[0]", fillcolor="#e58139ff"] ;
95 -> 99 ;
100 [label="FamilySize <= 1.5\ngini = 0.36\nsamples = 17\nvalue = [13, 4]\nclass = y[0]", fillcolor="#e58139b1"] ;
94 -> 100 ;
101 [label="AgeBin_Code <= 1.5\ngini = 0.444\nsamples = 12\nvalue = [8, 4]\nclass = y[0]", fillcolor="#e581397f"] ;
100 -> 101 ;
102 [label="gini = 0.463\nsamples = 11\nvalue = [7, 4]\nclass = y[0]", fillcolor="#e581396d"] ;
101 -> 102 ;
103 [label="gini = 0.0\nsamples = 1\nvalue = [1, 0]\nclass = y[0]", fillcolor="#e58139ff"] ;
101 -> 103 ;
104 [label="gini = 0.0\nsamples = 5\nvalue = [5, 0]\nclass = y[0]", fillcolor="#e58139ff"] ;
100 -> 104 ;
105 [label="FamilySize <= 3.5\ngini = 0.496\nsamples = 22\nvalue = [10, 12]\nclass = y[1]", fillcolor="#399de52a"] ;
93 -> 105 ;
106 [label="AgeBin_Code <= 1.5\ngini = 0.499\nsamples = 21\nvalue = [10, 11]\nclass = y[1]", fillcolor="#399de517"] ;
105 -> 106 ;
107 [label="FamilySize <= 2.5\ngini = 0.492\nsamples = 16\nvalue = [7, 9]\nclass = y[1]", fillcolor="#399de539"] ;
106 -> 107 ;
108 [label="FareBin_Code <= 1.5\ngini = 0.48\nsamples = 10\nvalue = [4, 6]\nclass = y[1]", fillcolor="#399de555"] ;
107 -> 108 ;
109 [label="FamilySize <= 1.5\ngini = 0.375\nsamples = 4\nvalue = [1, 3]\nclass = y[1]", fillcolor="#399de5aa"] ;
108 -> 109 ;
110 [label="gini = 0.5\nsamples = 2\nvalue = [1, 1]\nclass = y[0]", fillcolor="#e5813900"] ;
109 -> 110 ;
111 [label="gini = 0.0\nsamples = 2\nvalue = [0, 2]\nclass = y[1]", fillcolor="#399de5ff"] ;
109 -> 111 ;
112 [label="gini = 0.5\nsamples = 6\nvalue = [3, 3]\nclass = y[0]", fillcolor="#e5813900"] ;
108 -> 112 ;
113 [label="FareBin_Code <= 1.5\ngini = 0.5\nsamples = 6\nvalue = [3, 3]\nclass = y[0]", fillcolor="#e5813900"] ;
107 -> 113 ;
114 [label="gini = 0.444\nsamples = 3\nvalue = [2, 1]\nclass = y[0]", fillcolor="#e581397f"] ;
113 -> 114 ;
115 [label="gini = 0.444\nsamples = 3\nvalue = [1, 2]\nclass = y[1]", fillcolor="#399de57f"] ;
113 -> 115 ;
116 [label="FareBin_Code <= 1.5\ngini = 0.48\nsamples = 5\nvalue = [3, 2]\nclass = y[0]", fillcolor="#e5813955"] ;
106 -> 116 ;
117 [label="gini = 0.0\nsamples = 1\nvalue = [1, 0]\nclass = y[0]", fillcolor="#e58139ff"] ;
116 -> 117 ;
118 [label="FamilySize <= 2.5\ngini = 0.5\nsamples = 4\nvalue = [2, 2]\nclass = y[0]", fillcolor="#e5813900"] ;
116 -> 118 ;
119 [label="gini = 0.5\nsamples = 2\nvalue = [1, 1]\nclass = y[0]", fillcolor="#e5813900"] ;
118 -> 119 ;
120 [label="gini = 0.5\nsamples = 2\nvalue = [1, 1]\nclass = y[0]", fillcolor="#e5813900"] ;
118 -> 120 ;
121 [label="gini = 0.0\nsamples = 1\nvalue = [0, 1]\nclass = y[1]", fillcolor="#399de5ff"] ;
105 -> 121 ;
122 [label="gini = 0.0\nsamples = 1\nvalue = [0, 1]\nclass = y[1]", fillcolor="#399de5ff"] ;
82 -> 122 ;
123 [label="FareBin_Code <= 1.5\ngini = 0.198\nsamples = 27\nvalue = [24, 3]\nclass = y[0]", fillcolor="#e58139df"] ;
47 -> 123 ;
124 [label="gini = 0.0\nsamples = 1\nvalue = [0, 1]\nclass = y[1]", fillcolor="#399de5ff"] ;
123 -> 124 ;
125 [label="FamilySize <= 6.5\ngini = 0.142\nsamples = 26\nvalue = [24, 2]\nclass = y[0]", fillcolor="#e58139ea"] ;
123 -> 125 ;
126 [label="gini = 0.0\nsamples = 14\nvalue = [14, 0]\nclass = y[0]", fillcolor="#e58139ff"] ;
125 -> 126 ;
127 [label="FamilySize <= 7.5\ngini = 0.278\nsamples = 12\nvalue = [10, 2]\nclass = y[0]", fillcolor="#e58139cc"] ;
125 -> 127 ;
128 [label="AgeBin_Code <= 1.0\ngini = 0.408\nsamples = 7\nvalue = [5, 2]\nclass = y[0]", fillcolor="#e5813999"] ;
127 -> 128 ;
129 [label="gini = 0.32\nsamples = 5\nvalue = [4, 1]\nclass = y[0]", fillcolor="#e58139bf"] ;
128 -> 129 ;
130 [label="gini = 0.5\nsamples = 2\nvalue = [1, 1]\nclass = y[0]", fillcolor="#e5813900"] ;
128 -> 130 ;
131 [label="gini = 0.0\nsamples = 5\nvalue = [5, 0]\nclass = y[0]", fillcolor="#e58139ff"] ;
127 -> 131 ;
132 [label="Title_Code <= 0.5\ngini = 0.306\nsamples = 577\nvalue = [468, 109]\nclass = y[0]", fillcolor="#e58139c4"] ;
0 -> 132 [labeldistance=2.5, labelangle=-45, headlabel="False"] ;
133 [label="FamilySize <= 4.5\ngini = 0.489\nsamples = 40\nvalue = [17, 23]\nclass = y[1]", fillcolor="#399de543"] ;
132 -> 133 ;
134 [label="gini = 0.0\nsamples = 22\nvalue = [0, 22]\nclass = y[1]", fillcolor="#399de5ff"] ;
133 -> 134 ;
135 [label="FamilySize <= 6.5\ngini = 0.105\nsamples = 18\nvalue = [17, 1]\nclass = y[0]", fillcolor="#e58139f0"] ;
133 -> 135 ;
136 [label="gini = 0.0\nsamples = 11\nvalue = [11, 0]\nclass = y[0]", fillcolor="#e58139ff"] ;
135 -> 136 ;
137 [label="FamilySize <= 7.5\ngini = 0.245\nsamples = 7\nvalue = [6, 1]\nclass = y[0]", fillcolor="#e58139d4"] ;
135 -> 137 ;
138 [label="gini = 0.444\nsamples = 3\nvalue = [2, 1]\nclass = y[0]", fillcolor="#e581397f"] ;
137 -> 138 ;
139 [label="gini = 0.0\nsamples = 4\nvalue = [4, 0]\nclass = y[0]", fillcolor="#e58139ff"] ;
137 -> 139 ;
140 [label="Pclass <= 1.5\ngini = 0.269\nsamples = 537\nvalue = [451, 86]\nclass = y[0]", fillcolor="#e58139ce"] ;
132 -> 140 ;
141 [label="FareBin_Code <= 1.0\ngini = 0.457\nsamples = 119\nvalue = [77, 42]\nclass = y[0]", fillcolor="#e5813974"] ;
140 -> 141 ;
142 [label="gini = 0.0\nsamples = 6\nvalue = [6, 0]\nclass = y[0]", fillcolor="#e58139ff"] ;
141 -> 142 ;
143 [label="AgeBin_Code <= 2.5\ngini = 0.467\nsamples = 113\nvalue = [71, 42]\nclass = y[0]", fillcolor="#e5813968"] ;
141 -> 143 ;
144 [label="FareBin_Code <= 2.5\ngini = 0.487\nsamples = 81\nvalue = [47, 34]\nclass = y[0]", fillcolor="#e5813947"] ;
143 -> 144 ;
145 [label="FamilySize <= 1.5\ngini = 0.495\nsamples = 31\nvalue = [14, 17]\nclass = y[1]", fillcolor="#399de52d"] ;
144 -> 145 ;
146 [label="AgeBin_Code <= 1.5\ngini = 0.491\nsamples = 30\nvalue = [13, 17]\nclass = y[1]", fillcolor="#399de53c"] ;
145 -> 146 ;
147 [label="Title_Code <= 2.0\ngini = 0.498\nsamples = 17\nvalue = [9, 8]\nclass = y[0]", fillcolor="#e581391c"] ;
146 -> 147 ;
148 [label="gini = 0.0\nsamples = 1\nvalue = [0, 1]\nclass = y[1]", fillcolor="#399de5ff"] ;
147 -> 148 ;
149 [label="Embarked_Code <= 1.0\ngini = 0.492\nsamples = 16\nvalue = [9, 7]\nclass = y[0]", fillcolor="#e5813939"] ;
147 -> 149 ;
150 [label="gini = 0.444\nsamples = 6\nvalue = [4, 2]\nclass = y[0]", fillcolor="#e581397f"] ;
149 -> 150 ;
151 [label="gini = 0.5\nsamples = 10\nvalue = [5, 5]\nclass = y[0]", fillcolor="#e5813900"] ;
149 -> 151 ;
152 [label="Title_Code <= 2.0\ngini = 0.426\nsamples = 13\nvalue = [4, 9]\nclass = y[1]", fillcolor="#399de58e"] ;
146 -> 152 ;
153 [label="gini = 0.0\nsamples = 2\nvalue = [2, 0]\nclass = y[0]", fillcolor="#e58139ff"] ;
152 -> 153 ;
154 [label="Embarked_Code <= 1.0\ngini = 0.298\nsamples = 11\nvalue = [2, 9]\nclass = y[1]", fillcolor="#399de5c6"] ;
152 -> 154 ;
155 [label="gini = 0.0\nsamples = 2\nvalue = [0, 2]\nclass = y[1]", fillcolor="#399de5ff"] ;
154 -> 155 ;
156 [label="gini = 0.346\nsamples = 9\nvalue = [2, 7]\nclass = y[1]", fillcolor="#399de5b6"] ;
154 -> 156 ;
157 [label="gini = 0.0\nsamples = 1\nvalue = [1, 0]\nclass = y[0]", fillcolor="#e58139ff"] ;
145 -> 157 ;
158 [label="FamilySize <= 1.5\ngini = 0.449\nsamples = 50\nvalue = [33, 17]\nclass = y[0]", fillcolor="#e581397c"] ;
144 -> 158 ;
159 [label="Embarked_Code <= 1.0\ngini = 0.308\nsamples = 21\nvalue = [17, 4]\nclass = y[0]", fillcolor="#e58139c3"] ;
158 -> 159 ;
160 [label="Title_Code <= 2.0\ngini = 0.375\nsamples = 8\nvalue = [6, 2]\nclass = y[0]", fillcolor="#e58139aa"] ;
159 -> 160 ;
161 [label="gini = 0.0\nsamples = 1\nvalue = [1, 0]\nclass = y[0]", fillcolor="#e58139ff"] ;
160 -> 161 ;
162 [label="AgeBin_Code <= 1.5\ngini = 0.408\nsamples = 7\nvalue = [5, 2]\nclass = y[0]", fillcolor="#e5813999"] ;
160 -> 162 ;
163 [label="gini = 0.375\nsamples = 4\nvalue = [3, 1]\nclass = y[0]", fillcolor="#e58139aa"] ;
162 -> 163 ;
164 [label="gini = 0.444\nsamples = 3\nvalue = [2, 1]\nclass = y[0]", fillcolor="#e581397f"] ;
162 -> 164 ;
165 [label="AgeBin_Code <= 1.5\ngini = 0.26\nsamples = 13\nvalue = [11, 2]\nclass = y[0]", fillcolor="#e58139d1"] ;
159 -> 165 ;
166 [label="gini = 0.346\nsamples = 9\nvalue = [7, 2]\nclass = y[0]", fillcolor="#e58139b6"] ;
165 -> 166 ;
167 [label="gini = 0.0\nsamples = 4\nvalue = [4, 0]\nclass = y[0]", fillcolor="#e58139ff"] ;
165 -> 167 ;
168 [label="Embarked_Code <= 0.5\ngini = 0.495\nsamples = 29\nvalue = [16, 13]\nclass = y[0]", fillcolor="#e5813930"] ;
158 -> 168 ;
169 [label="AgeBin_Code <= 1.5\ngini = 0.48\nsamples = 10\nvalue = [4, 6]\nclass = y[1]", fillcolor="#399de555"] ;
168 -> 169 ;
170 [label="FamilySize <= 2.5\ngini = 0.5\nsamples = 8\nvalue = [4, 4]\nclass = y[0]", fillcolor="#e5813900"] ;
169 -> 170 ;
171 [label="gini = 0.5\nsamples = 6\nvalue = [3, 3]\nclass = y[0]", fillcolor="#e5813900"] ;
170 -> 171 ;
172 [label="gini = 0.5\nsamples = 2\nvalue = [1, 1]\nclass = y[0]", fillcolor="#e5813900"] ;
170 -> 172 ;
173 [label="gini = 0.0\nsamples = 2\nvalue = [0, 2]\nclass = y[1]", fillcolor="#399de5ff"] ;
169 -> 173 ;
174 [label="FamilySize <= 5.0\ngini = 0.465\nsamples = 19\nvalue = [12, 7]\nclass = y[0]", fillcolor="#e581396a"] ;
168 -> 174 ;
175 [label="FamilySize <= 3.5\ngini = 0.475\nsamples = 18\nvalue = [11, 7]\nclass = y[0]", fillcolor="#e581395d"] ;
174 -> 175 ;
176 [label="Title_Code <= 2.0\ngini = 0.457\nsamples = 17\nvalue = [11, 6]\nclass = y[0]", fillcolor="#e5813974"] ;
175 -> 176 ;
177 [label="gini = 0.0\nsamples = 1\nvalue = [1, 0]\nclass = y[0]", fillcolor="#e58139ff"] ;
176 -> 177 ;
178 [label="FamilySize <= 2.5\ngini = 0.469\nsamples = 16\nvalue = [10, 6]\nclass = y[0]", fillcolor="#e5813966"] ;
176 -> 178 ;
179 [label="AgeBin_Code <= 1.5\ngini = 0.444\nsamples = 15\nvalue = [10, 5]\nclass = y[0]", fillcolor="#e581397f"] ;
178 -> 179 ;
180 [label="gini = 0.444\nsamples = 6\nvalue = [4, 2]\nclass = y[0]", fillcolor="#e581397f"] ;
179 -> 180 ;
181 [label="gini = 0.444\nsamples = 9\nvalue = [6, 3]\nclass = y[0]", fillcolor="#e581397f"] ;
179 -> 181 ;
182 [label="gini = 0.0\nsamples = 1\nvalue = [0, 1]\nclass = y[1]", fillcolor="#399de5ff"] ;
178 -> 182 ;
183 [label="gini = 0.0\nsamples = 1\nvalue = [0, 1]\nclass = y[1]", fillcolor="#399de5ff"] ;
175 -> 183 ;
184 [label="gini = 0.0\nsamples = 1\nvalue = [1, 0]\nclass = y[0]", fillcolor="#e58139ff"] ;
174 -> 184 ;
185 [label="Title_Code <= 2.0\ngini = 0.375\nsamples = 32\nvalue = [24, 8]\nclass = y[0]", fillcolor="#e58139aa"] ;
143 -> 185 ;
186 [label="AgeBin_Code <= 3.5\ngini = 0.444\nsamples = 6\nvalue = [2, 4]\nclass = y[1]", fillcolor="#399de57f"] ;
185 -> 186 ;
187 [label="FareBin_Code <= 2.5\ngini = 0.32\nsamples = 5\nvalue = [1, 4]\nclass = y[1]", fillcolor="#399de5bf"] ;
186 -> 187 ;
188 [label="gini = 0.5\nsamples = 2\nvalue = [1, 1]\nclass = y[0]", fillcolor="#e5813900"] ;
187 -> 188 ;
189 [label="gini = 0.0\nsamples = 3\nvalue = [0, 3]\nclass = y[1]", fillcolor="#399de5ff"] ;
187 -> 189 ;
190 [label="gini = 0.0\nsamples = 1\nvalue = [1, 0]\nclass = y[0]", fillcolor="#e58139ff"] ;
186 -> 190 ;
191 [label="FareBin_Code <= 2.5\ngini = 0.26\nsamples = 26\nvalue = [22, 4]\nclass = y[0]", fillcolor="#e58139d1"] ;
185 -> 191 ;
192 [label="AgeBin_Code <= 3.5\ngini = 0.32\nsamples = 10\nvalue = [8, 2]\nclass = y[0]", fillcolor="#e58139bf"] ;
191 -> 192 ;
193 [label="Embarked_Code <= 1.0\ngini = 0.219\nsamples = 8\nvalue = [7, 1]\nclass = y[0]", fillcolor="#e58139db"] ;
192 -> 193 ;
194 [label="gini = 0.0\nsamples = 2\nvalue = [2, 0]\nclass = y[0]", fillcolor="#e58139ff"] ;
193 -> 194 ;
195 [label="gini = 0.278\nsamples = 6\nvalue = [5, 1]\nclass = y[0]", fillcolor="#e58139cc"] ;
193 -> 195 ;
196 [label="gini = 0.5\nsamples = 2\nvalue = [1, 1]\nclass = y[0]", fillcolor="#e5813900"] ;
192 -> 196 ;
197 [label="Embarked_Code <= 1.0\ngini = 0.219\nsamples = 16\nvalue = [14, 2]\nclass = y[0]", fillcolor="#e58139db"] ;
191 -> 197 ;
198 [label="AgeBin_Code <= 3.5\ngini = 0.346\nsamples = 9\nvalue = [7, 2]\nclass = y[0]", fillcolor="#e58139b6"] ;
197 -> 198 ;
199 [label="FamilySize <= 2.5\ngini = 0.444\nsamples = 6\nvalue = [4, 2]\nclass = y[0]", fillcolor="#e581397f"] ;
198 -> 199 ;
200 [label="gini = 0.444\nsamples = 3\nvalue = [2, 1]\nclass = y[0]", fillcolor="#e581397f"] ;
199 -> 200 ;
201 [label="gini = 0.444\nsamples = 3\nvalue = [2, 1]\nclass = y[0]", fillcolor="#e581397f"] ;
199 -> 201 ;
202 [label="gini = 0.0\nsamples = 3\nvalue = [3, 0]\nclass = y[0]", fillcolor="#e58139ff"] ;
198 -> 202 ;
203 [label="gini = 0.0\nsamples = 7\nvalue = [7, 0]\nclass = y[0]", fillcolor="#e58139ff"] ;
197 -> 203 ;
204 [label="AgeBin_Code <= 1.5\ngini = 0.188\nsamples = 418\nvalue = [374, 44]\nclass = y[0]", fillcolor="#e58139e1"] ;
140 -> 204 ;
205 [label="FareBin_Code <= 2.5\ngini = 0.213\nsamples = 314\nvalue = [276, 38]\nclass = y[0]", fillcolor="#e58139dc"] ;
204 -> 205 ;
206 [label="Embarked_Code <= 0.5\ngini = 0.201\nsamples = 291\nvalue = [258, 33]\nclass = y[0]", fillcolor="#e58139de"] ;
205 -> 206 ;
207 [label="AgeBin_Code <= 0.5\ngini = 0.295\nsamples = 39\nvalue = [32, 7]\nclass = y[0]", fillcolor="#e58139c7"] ;
206 -> 207 ;
208 [label="gini = 0.0\nsamples = 2\nvalue = [2, 0]\nclass = y[0]", fillcolor="#e58139ff"] ;
207 -> 208 ;
209 [label="FamilySize <= 2.5\ngini = 0.307\nsamples = 37\nvalue = [30, 7]\nclass = y[0]", fillcolor="#e58139c4"] ;
207 -> 209 ;
210 [label="FamilySize <= 1.5\ngini = 0.291\nsamples = 34\nvalue = [28, 6]\nclass = y[0]", fillcolor="#e58139c8"] ;
209 -> 210 ;
211 [label="FareBin_Code <= 0.5\ngini = 0.328\nsamples = 29\nvalue = [23, 6]\nclass = y[0]", fillcolor="#e58139bc"] ;
210 -> 211 ;
212 [label="gini = 0.287\nsamples = 23\nvalue = [19, 4]\nclass = y[0]", fillcolor="#e58139c9"] ;
211 -> 212 ;
213 [label="FareBin_Code <= 1.5\ngini = 0.444\nsamples = 6\nvalue = [4, 2]\nclass = y[0]", fillcolor="#e581397f"] ;
211 -> 213 ;
214 [label="Pclass <= 2.5\ngini = 0.5\nsamples = 2\nvalue = [1, 1]\nclass = y[0]", fillcolor="#e5813900"] ;
213 -> 214 ;
215 [label="gini = 0.0\nsamples = 1\nvalue = [0, 1]\nclass = y[1]", fillcolor="#399de5ff"] ;
214 -> 215 ;
216 [label="gini = 0.0\nsamples = 1\nvalue = [1, 0]\nclass = y[0]", fillcolor="#e58139ff"] ;
214 -> 216 ;
217 [label="Pclass <= 2.5\ngini = 0.375\nsamples = 4\nvalue = [3, 1]\nclass = y[0]", fillcolor="#e58139aa"] ;
213 -> 217 ;
218 [label="gini = 0.0\nsamples = 2\nvalue = [2, 0]\nclass = y[0]", fillcolor="#e58139ff"] ;
217 -> 218 ;
219 [label="gini = 0.5\nsamples = 2\nvalue = [1, 1]\nclass = y[0]", fillcolor="#e5813900"] ;
217 -> 219 ;
220 [label="gini = 0.0\nsamples = 5\nvalue = [5, 0]\nclass = y[0]", fillcolor="#e58139ff"] ;
210 -> 220 ;
221 [label="FareBin_Code <= 1.0\ngini = 0.444\nsamples = 3\nvalue = [2, 1]\nclass = y[0]", fillcolor="#e581397f"] ;
209 -> 221 ;
222 [label="gini = 0.0\nsamples = 1\nvalue = [1, 0]\nclass = y[0]", fillcolor="#e58139ff"] ;
221 -> 222 ;
223 [label="gini = 0.5\nsamples = 2\nvalue = [1, 1]\nclass = y[0]", fillcolor="#e5813900"] ;
221 -> 223 ;
224 [label="FareBin_Code <= 1.5\ngini = 0.185\nsamples = 252\nvalue = [226, 26]\nclass = y[0]", fillcolor="#e58139e2"] ;
206 -> 224 ;
225 [label="FareBin_Code <= 0.5\ngini = 0.195\nsamples = 219\nvalue = [195, 24]\nclass = y[0]", fillcolor="#e58139e0"] ;
224 -> 225 ;
226 [label="Pclass <= 2.5\ngini = 0.156\nsamples = 117\nvalue = [107, 10]\nclass = y[0]", fillcolor="#e58139e7"] ;
225 -> 226 ;
227 [label="gini = 0.0\nsamples = 6\nvalue = [6, 0]\nclass = y[0]", fillcolor="#e58139ff"] ;
226 -> 227 ;
228 [label="FamilySize <= 2.5\ngini = 0.164\nsamples = 111\nvalue = [101, 10]\nclass = y[0]", fillcolor="#e58139e6"] ;
226 -> 228 ;
229 [label="FamilySize <= 1.5\ngini = 0.165\nsamples = 110\nvalue = [100, 10]\nclass = y[0]", fillcolor="#e58139e6"] ;
228 -> 229 ;
230 [label="AgeBin_Code <= 0.5\ngini = 0.161\nsamples = 102\nvalue = [93, 9]\nclass = y[0]", fillcolor="#e58139e6"] ;
229 -> 230 ;
231 [label="gini = 0.0\nsamples = 1\nvalue = [1, 0]\nclass = y[0]", fillcolor="#e58139ff"] ;
230 -> 231 ;
232 [label="Embarked_Code <= 1.5\ngini = 0.162\nsamples = 101\nvalue = [92, 9]\nclass = y[0]", fillcolor="#e58139e6"] ;
230 -> 232 ;
233 [label="gini = 0.159\nsamples = 23\nvalue = [21, 2]\nclass = y[0]", fillcolor="#e58139e7"] ;
232 -> 233 ;
234 [label="gini = 0.163\nsamples = 78\nvalue = [71, 7]\nclass = y[0]", fillcolor="#e58139e6"] ;
232 -> 234 ;
235 [label="Embarked_Code <= 1.5\ngini = 0.219\nsamples = 8\nvalue = [7, 1]\nclass = y[0]", fillcolor="#e58139db"] ;
229 -> 235 ;
236 [label="gini = 0.0\nsamples = 1\nvalue = [1, 0]\nclass = y[0]", fillcolor="#e58139ff"] ;
235 -> 236 ;
237 [label="gini = 0.245\nsamples = 7\nvalue = [6, 1]\nclass = y[0]", fillcolor="#e58139d4"] ;
235 -> 237 ;
238 [label="gini = 0.0\nsamples = 1\nvalue = [1, 0]\nclass = y[0]", fillcolor="#e58139ff"] ;
228 -> 238 ;
239 [label="Pclass <= 2.5\ngini = 0.237\nsamples = 102\nvalue = [88, 14]\nclass = y[0]", fillcolor="#e58139d6"] ;
225 -> 239 ;
240 [label="FamilySize <= 1.5\ngini = 0.165\nsamples = 33\nvalue = [30, 3]\nclass = y[0]", fillcolor="#e58139e6"] ;
239 -> 240 ;
241 [label="Title_Code <= 2.0\ngini = 0.175\nsamples = 31\nvalue = [28, 3]\nclass = y[0]", fillcolor="#e58139e4"] ;
240 -> 241 ;
242 [label="gini = 0.0\nsamples = 2\nvalue = [2, 0]\nclass = y[0]", fillcolor="#e58139ff"] ;
241 -> 242 ;
243 [label="AgeBin_Code <= 0.5\ngini = 0.185\nsamples = 29\nvalue = [26, 3]\nclass = y[0]", fillcolor="#e58139e2"] ;
241 -> 243 ;
244 [label="gini = 0.0\nsamples = 1\nvalue = [1, 0]\nclass = y[0]", fillcolor="#e58139ff"] ;
243 -> 244 ;
245 [label="gini = 0.191\nsamples = 28\nvalue = [25, 3]\nclass = y[0]", fillcolor="#e58139e0"] ;
243 -> 245 ;
246 [label="gini = 0.0\nsamples = 2\nvalue = [2, 0]\nclass = y[0]", fillcolor="#e58139ff"] ;
240 -> 246 ;
247 [label="FamilySize <= 1.5\ngini = 0.268\nsamples = 69\nvalue = [58, 11]\nclass = y[0]", fillcolor="#e58139cf"] ;
239 -> 247 ;
248 [label="AgeBin_Code <= 0.5\ngini = 0.257\nsamples = 66\nvalue = [56, 10]\nclass = y[0]", fillcolor="#e58139d1"] ;
247 -> 248 ;
249 [label="gini = 0.375\nsamples = 4\nvalue = [3, 1]\nclass = y[0]", fillcolor="#e58139aa"] ;
248 -> 249 ;
250 [label="Embarked_Code <= 1.5\ngini = 0.248\nsamples = 62\nvalue = [53, 9]\nclass = y[0]", fillcolor="#e58139d4"] ;
248 -> 250 ;
251 [label="gini = 0.0\nsamples = 1\nvalue = [1, 0]\nclass = y[0]", fillcolor="#e58139ff"] ;
250 -> 251 ;
252 [label="gini = 0.252\nsamples = 61\nvalue = [52, 9]\nclass = y[0]", fillcolor="#e58139d3"] ;
250 -> 252 ;
253 [label="FamilySize <= 2.5\ngini = 0.444\nsamples = 3\nvalue = [2, 1]\nclass = y[0]", fillcolor="#e581397f"] ;
247 -> 253 ;
254 [label="gini = 0.0\nsamples = 1\nvalue = [0, 1]\nclass = y[1]", fillcolor="#399de5ff"] ;
253 -> 254 ;
255 [label="gini = 0.0\nsamples = 2\nvalue = [2, 0]\nclass = y[0]", fillcolor="#e58139ff"] ;
253 -> 255 ;
256 [label="Pclass <= 2.5\ngini = 0.114\nsamples = 33\nvalue = [31, 2]\nclass = y[0]", fillcolor="#e58139ef"] ;
224 -> 256 ;
257 [label="FamilySize <= 1.5\ngini = 0.278\nsamples = 6\nvalue = [5, 1]\nclass = y[0]", fillcolor="#e58139cc"] ;
256 -> 257 ;
258 [label="gini = 0.0\nsamples = 2\nvalue = [2, 0]\nclass = y[0]", fillcolor="#e58139ff"] ;
257 -> 258 ;
259 [label="FamilySize <= 2.5\ngini = 0.375\nsamples = 4\nvalue = [3, 1]\nclass = y[0]", fillcolor="#e58139aa"] ;
257 -> 259 ;
260 [label="gini = 0.444\nsamples = 3\nvalue = [2, 1]\nclass = y[0]", fillcolor="#e581397f"] ;
259 -> 260 ;
261 [label="gini = 0.0\nsamples = 1\nvalue = [1, 0]\nclass = y[0]", fillcolor="#e58139ff"] ;
259 -> 261 ;
262 [label="Embarked_Code <= 1.5\ngini = 0.071\nsamples = 27\nvalue = [26, 1]\nclass = y[0]", fillcolor="#e58139f5"] ;
256 -> 262 ;
263 [label="FamilySize <= 2.5\ngini = 0.278\nsamples = 6\nvalue = [5, 1]\nclass = y[0]", fillcolor="#e58139cc"] ;
262 -> 263 ;
264 [label="gini = 0.0\nsamples = 5\nvalue = [5, 0]\nclass = y[0]", fillcolor="#e58139ff"] ;
263 -> 264 ;
265 [label="gini = 0.0\nsamples = 1\nvalue = [0, 1]\nclass = y[1]", fillcolor="#399de5ff"] ;
263 -> 265 ;
266 [label="gini = 0.0\nsamples = 21\nvalue = [21, 0]\nclass = y[0]", fillcolor="#e58139ff"] ;
262 -> 266 ;
267 [label="FamilySize <= 1.5\ngini = 0.34\nsamples = 23\nvalue = [18, 5]\nclass = y[0]", fillcolor="#e58139b8"] ;
205 -> 267 ;
268 [label="Pclass <= 2.5\ngini = 0.494\nsamples = 9\nvalue = [4, 5]\nclass = y[1]", fillcolor="#399de533"] ;
267 -> 268 ;
269 [label="gini = 0.0\nsamples = 2\nvalue = [2, 0]\nclass = y[0]", fillcolor="#e58139ff"] ;
268 -> 269 ;
270 [label="gini = 0.408\nsamples = 7\nvalue = [2, 5]\nclass = y[1]", fillcolor="#399de599"] ;
268 -> 270 ;
271 [label="gini = 0.0\nsamples = 14\nvalue = [14, 0]\nclass = y[0]", fillcolor="#e58139ff"] ;
267 -> 271 ;
272 [label="FareBin_Code <= 0.5\ngini = 0.109\nsamples = 104\nvalue = [98, 6]\nclass = y[0]", fillcolor="#e58139ef"] ;
204 -> 272 ;
273 [label="gini = 0.0\nsamples = 32\nvalue = [32, 0]\nclass = y[0]", fillcolor="#e58139ff"] ;
272 -> 273 ;
274 [label="FareBin_Code <= 1.5\ngini = 0.153\nsamples = 72\nvalue = [66, 6]\nclass = y[0]", fillcolor="#e58139e8"] ;
272 -> 274 ;
275 [label="FamilySize <= 1.5\ngini = 0.223\nsamples = 47\nvalue = [41, 6]\nclass = y[0]", fillcolor="#e58139da"] ;
274 -> 275 ;
276 [label="Title_Code <= 2.0\ngini = 0.24\nsamples = 43\nvalue = [37, 6]\nclass = y[0]", fillcolor="#e58139d6"] ;
275 -> 276 ;
277 [label="gini = 0.0\nsamples = 4\nvalue = [4, 0]\nclass = y[0]", fillcolor="#e58139ff"] ;
276 -> 277 ;
278 [label="AgeBin_Code <= 3.5\ngini = 0.26\nsamples = 39\nvalue = [33, 6]\nclass = y[0]", fillcolor="#e58139d1"] ;
276 -> 278 ;
279 [label="Embarked_Code <= 1.0\ngini = 0.272\nsamples = 37\nvalue = [31, 6]\nclass = y[0]", fillcolor="#e58139ce"] ;
278 -> 279 ;
280 [label="gini = 0.0\nsamples = 2\nvalue = [2, 0]\nclass = y[0]", fillcolor="#e58139ff"] ;
279 -> 280 ;
281 [label="AgeBin_Code <= 2.5\ngini = 0.284\nsamples = 35\nvalue = [29, 6]\nclass = y[0]", fillcolor="#e58139ca"] ;
279 -> 281 ;
282 [label="Pclass <= 2.5\ngini = 0.302\nsamples = 27\nvalue = [22, 5]\nclass = y[0]", fillcolor="#e58139c5"] ;
281 -> 282 ;
283 [label="gini = 0.298\nsamples = 11\nvalue = [9, 2]\nclass = y[0]", fillcolor="#e58139c6"] ;
282 -> 283 ;
284 [label="gini = 0.305\nsamples = 16\nvalue = [13, 3]\nclass = y[0]", fillcolor="#e58139c4"] ;
282 -> 284 ;
285 [label="Pclass <= 2.5\ngini = 0.219\nsamples = 8\nvalue = [7, 1]\nclass = y[0]", fillcolor="#e58139db"] ;
281 -> 285 ;
286 [label="gini = 0.32\nsamples = 5\nvalue = [4, 1]\nclass = y[0]", fillcolor="#e58139bf"] ;
285 -> 286 ;
287 [label="gini = 0.0\nsamples = 3\nvalue = [3, 0]\nclass = y[0]", fillcolor="#e58139ff"] ;
285 -> 287 ;
288 [label="gini = 0.0\nsamples = 2\nvalue = [2, 0]\nclass = y[0]", fillcolor="#e58139ff"] ;
278 -> 288 ;
289 [label="gini = 0.0\nsamples = 4\nvalue = [4, 0]\nclass = y[0]", fillcolor="#e58139ff"] ;
275 -> 289 ;
290 [label="gini = 0.0\nsamples = 25\nvalue = [25, 0]\nclass = y[0]", fillcolor="#e58139ff"] ;
274 -> 290 ;
}